#include <stdio.h>
#include <stdlib.h>
#include <stdint.h>

uint32_t func0(uint32_t var0,uint32_t var1)
{
uint32_t var2 = 1595638692;
uint32_t var3 = 4248976908;
uint32_t var4 = 2895115303;
uint32_t var5 = 18782533;
uint32_t var6 = 2699825610;
uint32_t var7 = 1592608268;
uint32_t var8 = 3867136122;
uint32_t var9 = 951713600;
var4 = var3 != var3 ? var0 : var4;
var4 = var7 ^ var7;
var3 = !var4;
var1 = var5 >= var5;
var5 = var5 > var2 ? var2 : var9;
var5 = var4 != var7 ? var3 : var6;
var5 = ~var3;
var2 = var0 < var3 ? var2 : var4;
var3 = ~var1;
var5 = var3 <= var6;
return var9;
}

uint32_t func1(uint32_t var0,uint32_t var1,uint32_t var2,uint32_t var3)
{
uint32_t var4 = 870046669;
uint32_t var5 = 4056669048;
uint32_t var6 = 1742307475;
uint32_t var7 = 1406329162;
uint32_t var8 = 4288474441;
uint32_t var9 = 2034345307;
var0 = -var2;
var3 = var3 / var1;
var1 = var7 == var5;
var2 = var1 < var3;
var5 = +var9;
var1 = var9 << var3;
var7 = var7 >= var5;
var9 = var2 && var2;
var2 = var1 | var8;
var6 = var6 || var7 ? var3 : var7;
return var5;
}

uint32_t func2(uint32_t var0,uint32_t var1,uint32_t var2)
{
uint32_t var3 = 1547428860;
uint32_t var4 = 2852745966;
uint32_t var5 = 1883485479;
uint32_t var6 = 1927109099;
uint32_t var7 = 1924620969;
uint32_t var8 = 931801398;
uint32_t var9 = 1890237711;
var4 = var8 != var6 ? var4 : var3;
var0 = var0 && var0 ? var6 : var8;
var6 = -var6;
var8 = ~var3;
var0 = var1 & var7;
var6 = var0 || var3 ? var6 : var1;
var6 = var3 < var3;
var8 = var1 * var0;
var2 = +var4;
var7 = var9 != var3;
return var7;
}

uint32_t func3(uint32_t var0,uint32_t var1,uint32_t var2)
{
uint32_t var3 = 1278749605;
uint32_t var4 = 2725016313;
uint32_t var5 = 1654419771;
uint32_t var6 = 2418141980;
uint32_t var7 = 3234224021;
uint32_t var8 = 1260159110;
uint32_t var9 = 1027598598;
var0 = var4 ^ var7;
var3 = ~var7;
var7 = !var6;
var9 = var3 < var6 ? var9 : var5;
var6 = var4 > var3 ? var2 : var0;
var8 = ~var1;
var6 = var7 < var2 ? var0 : var7;
var3 = var9 != var7 ? var9 : var6;
var8 = var5 >= var7 ? var0 : var9;
var9 = var2 == var2;
return var7;
}

uint32_t func4(uint32_t var0,uint32_t var1,uint32_t var2,uint32_t var3)
{
uint32_t var4 = 307910749;
uint32_t var5 = 520068256;
uint32_t var6 = 3330729947;
uint32_t var7 = 2985282313;
uint32_t var8 = 3337571477;
uint32_t var9 = 3557257561;
var7 = !var1;
var9 = var5 | var0;
var7 = var6 * var2;
var0 = var5 <= var0;
var1 = var3 >= var5 ? var0 : var9;
var7 = +var8;
var9 = var7 & var1;
var6 = var1 <= var1;
var9 = var5 >= var5;
var5 = var7 / var2;
return var5;
}

uint32_t func5(uint32_t var0,uint32_t var1)
{
uint32_t var2 = 510497523;
uint32_t var3 = 772130062;
uint32_t var4 = 4167552096;
uint32_t var5 = 3066897589;
uint32_t var6 = 4126997598;
uint32_t var7 = 2474637069;
uint32_t var8 = 2156114331;
uint32_t var9 = 1810266576;
var2 = var0 != var5 ? var6 : var0;
var6 = var3 >> var0;
var8 = var6 && var2 ? var5 : var8;
var2 = var6 + var6;
var2 = var5 - var5;
var4 = +var5;
var4 = +var9;
var0 = var6 & var1;
var3 = ~var8;
var0 = var0 ^ var4;
return var2;
}

uint32_t func6(uint32_t var0,uint32_t var1)
{
uint32_t var2 = 465081501;
uint32_t var3 = 1120386038;
uint32_t var4 = 2413679836;
uint32_t var5 = 2230137249;
uint32_t var6 = 1545375304;
uint32_t var7 = 1894279709;
uint32_t var8 = 3105511328;
uint32_t var9 = 4119175709;
var2 = var4 | var6;
var0 = var7 || var8;
var4 = ~var4;
var4 = !var7;
var2 = var4 == var3 ? var2 : var9;
var6 = var7 && var9;
var4 = +var9;
var4 = var4 || var0 ? var5 : var8;
var6 = ~var4;
var0 = var4 < var8 ? var9 : var3;
return var6;
}

uint32_t func7(uint32_t var0,uint32_t var1)
{
uint32_t var2 = 4194941857;
uint32_t var3 = 1731937232;
uint32_t var4 = 2089676639;
uint32_t var5 = 853047062;
uint32_t var6 = 397412836;
uint32_t var7 = 4282040902;
uint32_t var8 = 1299235832;
uint32_t var9 = 1224113905;
var0 = var2 || var9 ? var5 : var2;
var6 = var7 + var9;
var8 = var4 == var6 ? var9 : var2;
var9 = -var1;
var1 = var6 >= var1;
var2 = var4 != var3;
var6 = ~var0;
var8 = var1 >= var5 ? var8 : var3;
var7 = var8 || var6 ? var9 : var2;
var5 = var3 >> var4;
return var5;
}

uint32_t func8(uint32_t var0,uint32_t var1,uint32_t var2)
{
uint32_t var3 = 872602000;
uint32_t var4 = 689830071;
uint32_t var5 = 1163350411;
uint32_t var6 = 3715419424;
uint32_t var7 = 883978501;
uint32_t var8 = 476016465;
uint32_t var9 = 38486489;
var1 = ~var4;
var8 = var0 >= var4 ? var5 : var5;
var2 = var6 & var3;
var5 = var0 + var5;
var1 = var7 > var4 ? var6 : var9;
var4 = var3 & var2;
var3 = var2 != var1;
var7 = var9 * var2;
var0 = var3 <= var3 ? var2 : var0;
var7 = ~var1;
return var1;
}

uint32_t func9(uint32_t var0,uint32_t var1)
{
uint32_t var2 = 4032072100;
uint32_t var3 = 3159535596;
uint32_t var4 = 454757049;
uint32_t var5 = 876941794;
uint32_t var6 = 1671758587;
uint32_t var7 = 3652982458;
uint32_t var8 = 767941816;
uint32_t var9 = 873359634;
var2 = var2 ^ var6;
var8 = var5 - var1;
var5 = var2 >= var7;
var8 = !var9;
var9 = var2 != var4;
var9 = var7 * var3;
var5 = ~var4;
var8 = var2 != var4 ? var2 : var0;
var0 = var6 * var8;
var2 = var3 - var2;
return var9;
}

int main(int argc,char **argv)
{
uint32_t var0 = 3917322965;
uint32_t var1 = 3334089872;
uint32_t var2 = 3607980072;
uint32_t var3 = 683295186;
uint32_t var4 = 3741302453;
uint32_t var5 = 474534330;
uint32_t var6 = 2969431376;
uint32_t var7 = 1416916739;
uint32_t var8 = 2290942966;
uint32_t var9 = 3452327585;
var7 = func8(var3, var0, var5);
var0 = ~var0;
var0 = func4(var5, var0, var3, var7);
var2 = var0 >= var8 ? var6 : var7;
var1 = func9(var4, var5);
var2 = var7 >= var6 ? var5 : var9;
var5 = func3(var1, var6, var8);
var1 = var7 | var7;
var1 = func2(var8, var1, var8);
var9 = var6 / var6;
var7 = func5(var6, var3);
var6 = var7 >= var3;
var7 = func6(var2, var5);
var9 = var7 > var0 ? var6 : var4;
var5 = func5(var0, var0);
var0 = ~var4;
var2 = func3(var5, var0, var6);
var8 = var1 >= var0;
var2 = func4(var8, var1, var5, var4);
var5 = var3 && var7;
return 0;
}
